double NODE_WEIGHTS[N_LEAVES - 1][INPUT_SIZE] = {0.009875910356640816, 0.03488350287079811, -0.044444739818573, 0.033282455056905746, -0.02783474139869213, -0.01880655251443386, -0.020794669166207314, -0.033383071422576904, 0.01959936134517193, -0.001311873085796833, -0.010972453281283379, -0.003071687649935484, 0.027055613696575165, -0.012173731811344624, 0.013410838320851326, 0.008172834292054176, 0.01828087493777275, -0.01639387011528015, -0.019382638856768608, 0.01886620931327343, 0.020629098638892174, -0.012166577391326427, -0.026338495314121246, 0.03845890611410141, -0.025069262832403183, -0.017596064135432243, 0.0063848719000816345, 0.032116927206516266, 0.0057752435095608234, 0.012666015885770321, 0.011676455847918987, 0.018859952688217163, -0.009848680347204208, -0.024006783962249756, 0.00724886916577816, -0.008856594562530518, -0.018847476691007614, 0.017292248085141182, 0.03270770236849785, -0.020264340564608574, 0.010209946893155575, -0.00036641975748352706, 0.07689200341701508, 0.05039291828870773, 0.030286448076367378, 0.01814114674925804, 0.011110128834843636, -0.0044037699699401855, 0.010509791783988476, -0.01520272996276617, -0.02474876679480076, 0.005608886480331421, -0.015284372493624687, -0.0073755057528615, 0.020853465422987938, -0.004511017352342606, -0.01944107748568058, -0.011365799233317375, -0.021775221452116966, -0.01071587111800909, -0.054729197174310684, -0.04539773240685463, -0.009053640998899937, -0.014387947507202625, -0.04945439472794533, -0.00881177932024002, -0.05214570462703705, 0.003350180573761463, 0.015223653055727482, -0.042006488889455795, 0.019326159730553627, 0.016667526215314865, -0.018995074555277824, -0.013353809714317322, -0.04377245903015137, -0.002796450862661004, 0.03296848386526108, -0.011033180169761181, 0.0558026060461998, 0.05840200558304787, -0.010379856452345848, -0.019412847235798836, -0.010453890077769756, -0.008945819921791553, -0.02265023998916149, -0.06650404632091522, -0.025053681805729866, -0.06536123156547546, 0.017710838466882706, 0.05187559500336647, 0.016146162524819374, -0.006081747356802225, 0.009028133936226368, -0.02325693890452385, 0.027078378945589066, 0.030326826497912407, 0.02357572503387928, 0.035021621733903885, 0.03153587132692337, -0.05391814187169075, -0.024167098104953766, -0.03450000658631325, 0.017453806474804878, 0.03262675926089287, 0.027195435017347336, 0.1291620433330536, 0.02047893963754177, 0.03448403999209404, 0.03533818945288658, 0.032365575432777405, 0.007431855425238609, 0.037649109959602356, -0.001988172996789217, 0.0025665105786174536, 0.018387531861662865, 0.010541919618844986, 0.0029276907444000244, 0.0060479165986180305, -0.05676526576280594, -0.044906917959451675, -0.007554229348897934, 0.02905712090432644, 0.006869710516184568, -0.00810843612998724, -0.0064581409096717834, 0.028504041954874992, 0.009923845529556274, -0.007698269095271826, 0.03412538766860962, 0.01743892952799797, -0.005642829928547144, -0.0448506623506546, -0.05087260901927948, -0.04482172057032585, 0.03831751272082329, -0.0043887123465538025, -0.02856200374662876, 0.018401963636279106, 0.032263390719890594, -0.0015352137852460146, 0.034822653979063034, 0.08701366931200027, -0.001237957738339901, 0.05623229593038559, -0.015703236684203148, 0.006032729055732489, 0.032199837267398834, 0.005717499181628227, 0.038917675614356995, -0.0008447206928394735, -0.02638859860599041, 0.030120132490992546, -0.00876445509493351, 0.0031959384214133024, -0.01788611151278019, -0.011544098146259785, -0.02064000442624092, 0.02793201617896557, 0.0019627325236797333, -0.022506488487124443, -0.007693575229495764, -0.0267830528318882, -0.01966714672744274, -0.03509025648236275, -0.016507452353835106, -0.015737438574433327, 0.011523140594363213, 0.023130495101213455, 0.08451841026544571, 0.00030687169055454433, -0.027318956330418587, 0.014605969190597534, 0.028397679328918457, -0.015735572203993797, -0.06252972036600113, -0.04945299029350281, -0.0042447433806955814, -0.08935929089784622, -0.05066932365298271, -0.06401573866605759, -0.008966785855591297, -0.03763076290488243, 0.019473062828183174, 0.0005743983201682568, -0.0001383390772389248, -0.010566464625298977, -0.025608772411942482, -0.022657323628664017, -0.03053496964275837, 0.003689467441290617, -0.012040791101753712, -0.04141839221119881, -0.024716604501008987, -0.0018686327384784818, -0.054404161870479584, 0.0048789381980896, -0.021114934235811234, -0.029149802401661873, 0.026561539620161057, 0.06862540543079376, -0.022531380876898766, 0.028447572141885757, 0.011180272325873375, -0.01208054181188345, 0.03516518697142601, 0.02539673261344433, -0.009447058662772179, -0.012313738465309143, 0.04516911134123802, -0.01925870217382908, 0.048957545310258865, 0.006053336430341005, -0.04301229491829872, -0.006305104587227106, -0.024197645485401154, 0.0234922394156456, 0.007922820746898651, 0.018520191311836243, -0.010154678486287594, 0.01710752584040165, 0.022110961377620697, 0.0014271645341068506, 0.02964431419968605, 0.035754114389419556, 0.019004225730895996, -0.06719879060983658, 0.0046433499082922935, 0.018202707171440125, -0.003480457467958331, -0.049835603684186935, -0.017380867153406143, -0.04712850973010063, -0.06597308069467545, -0.009829552844166756, 0.029713209718465805, -0.00010887724783970043, 0.019041219726204872, -0.015226912684738636, 0.00811846274882555, -0.0009345832513645291, -0.044827237725257874, -0.025320840999484062, 0.027495991438627243, -0.019372493028640747, 0.0322197824716568, -0.012258151546120644, 0.03855965659022331, -0.05208975821733475, 0.021285763010382652, -0.016250349581241608, -0.002832734026014805, -0.03518857806921005, 0.0029996123630553484, -0.05889134854078293, 0.028351090848445892, -0.02892816811800003, 0.035794951021671295, -0.014628613367676735, 0.03310530632734299, 0.02730635739862919, -0.0015884916065260768, 0.015328793786466122, 0.04014384374022484, 0.01648552343249321, 0.02669651247560978, 0.013971053063869476, 0.0657104030251503, 0.0632268637418747, 0.010661965236067772, 0.010153179056942463, -0.039163295179605484, -0.012082505971193314, 0.05702883377671242, 0.06758780777454376, 0.04688630625605583, 0.04397072643041611, -0.0024411894846707582, -0.008858752436935902, 0.001384517876431346, 0.02353336475789547, 0.002681876067072153, -0.037149153649806976, 0.03072260320186615, -0.028400903567671776, 0.002724281046539545, -0.008013417944312096, 0.03101748786866665, -0.038416292518377304, 0.012442666105926037, 0.022363774478435516, -0.04682498425245285, -0.03966555744409561, -0.0548752062022686, 0.01437817420810461, -0.0445636622607708, -0.013518369756639004, -0.015354686416685581, -0.01868680864572525, -0.024966685101389885, -0.03781542927026749, -0.0370410680770874, -0.004004107788205147, -0.005020469427108765, -0.04767948389053345, 0.012220144271850586, -0.013759535737335682, -0.034307464957237244, 0.028958003968000412, -0.021067406982183456, -0.004390400368720293, -0.004516042768955231, 0.010332307778298855, -0.03519245237112045, -0.032331276684999466, 0.005960083566606045, -0.02264147438108921, 0.02766459994018078, 0.008126461878418922, -0.007364676799625158, 0.020783040672540665, -0.006717792712152004, 0.01537176314741373, 0.039448339492082596, 0.009672936983406544, 0.016017483547329903, 0.05042778700590134, 0.02924385294318199, 0.055294524878263474, 0.022004298865795135, -0.05468260869383812, -0.019747089594602585, -0.0070729744620621204, -0.01846480183303356, 0.020843282341957092, 0.011325156316161156, 0.022772381082177162, -0.011457809247076511, 0.002438957802951336, -0.046371765434741974, 0.008890949189662933, -0.03624457120895386, -0.020467866212129593, -0.03555421903729439, 0.024879835546016693, 0.0023866479750722647, -0.03665515407919884, 0.023926647379994392, -0.026471329852938652, 0.008664392866194248, 0.0010421221377328038, -0.01761884242296219, 0.05507591739296913, 0.07674356549978256, -0.018217813223600388, 0.0017731193220242858, 0.07053365558385849, 0.007667511701583862, -0.011059918440878391, 0.005372961051762104, -0.04960297420620918, 0.02370362915098667, 0.04405951127409935, 0.024941563606262207, -0.04165035858750343, -0.01635841466486454, -0.024581294506788254, -0.0027080357540398836, -0.029415283352136612, 0.030103852972388268, 0.04562075808644295, 0.05047284811735153, 0.03321713209152222, 0.02346137724816799, -0.009338350035250187, -0.02926633507013321, 0.018739406019449234, -0.009356565773487091, 0.007200854364782572, 0.033104702830314636, 0.04632752388715744, 0.0624527744948864, 0.03914004564285278, 0.00948251225054264, 0.038703083992004395, 0.018054790794849396, 0.05247821658849716, 0.033845167607069016, 0.03567458689212799, -0.028542693704366684, -0.02871006727218628, 0.012296322733163834, 0.0727062076330185, 0.021443437784910202, -0.017830030992627144, 0.02348926104605198, 0.006710847839713097, 0.024239279329776764, -0.00889099482446909, -0.0076499199494719505, 0.0010698098922148347, 0.03481908142566681, -0.0356871597468853, -0.049018844962120056, -0.07476060092449188, 0.008677170611917973, -0.029314760118722916, -0.037423275411129, -0.015878617763519287, 0.006360018625855446, -0.010456010699272156, -0.0010817970614880323, -0.050500404089689255, -0.002504376694560051, 0.03976719081401825, -0.07066084444522858, -0.044516630470752716, 0.018620945513248444, 0.0006061445455998182, -0.07590629905462265, -0.016125841066241264, 0.002625399036332965, -0.039419714361429214, 0.04562539607286453, -0.009167141281068325, 0.036951567977666855, -0.0055554951541125774, -0.017582226544618607, -0.0028893197886645794, -0.0001592946791788563, -0.02444504201412201, 0.040472034364938736, 0.013044629245996475, 0.003648530226200819, -1.6702068023732863e-05, -0.007942386902868748, 0.022676292806863785, -0.017525484785437584, -0.030336789786815643, 0.012972277589142323, 0.04462685063481331, -0.05224292352795601, -0.055140171200037, 0.04400582239031792, 0.022575385868549347, 0.03612638637423515, 0.016789648681879044, -0.016309279948472977, -0.010523304343223572, -0.0009936622809618711, 0.03336780518293381, -0.013697369955480099, -0.02232479490339756, 0.02947886660695076, -0.029488012194633484, -0.000422202778281644, 0.007804890163242817, 0.04550749436020851, 0.042419034987688065, 0.011382867582142353, 0.021684914827346802, -0.016586998477578163, 0.0034078899770975113, -0.05585475638508797, 0.005999264307320118, 0.03078717365860939, 0.018603581935167313, 0.010237821377813816, -0.02025892399251461, -0.02626722678542137, -0.03558604419231415, -0.03384355828166008, -0.02091335505247116, -0.043653454631567, 0.010254082269966602, -0.024498794227838516, -0.0010270627681165934, -0.037561655044555664, -0.013457005843520164, 0.007049213629215956, 0.017878705635666847, 0.02144751325249672, 0.005840822122991085, -0.024547388777136803, -0.008761100471019745, -0.03894539922475815, 0.023339025676250458, 0.013723555020987988, -0.05078675597906113, -0.01694982685148716, 0.009591340087354183, -0.020085003226995468, -0.008629131130874157, -0.0026847170665860176, -0.007029193919152021, 0.048539530485868454, -0.021968336775898933, 0.0006370664923451841, 0.033882781863212585, -0.0018739443039521575, 0.004171597305685282, 0.0510890930891037, -0.05030056834220886, 0.027341298758983612, -0.004345179069787264, -0.006728798616677523, 0.0371473953127861, -0.02462334744632244, 0.009155026637017727, -0.01949145272374153, 0.03195163235068321, 0.03545626252889633, 0.047293394804000854, -0.004305299837142229, 0.03524409234523773, 0.06260215491056442, 0.02146323025226593, 0.036538757383823395, -0.040166065096855164, 0.016146449372172356, -0.012855922803282738, 0.025758817791938782, 0.0014581677969545126, -0.019956940785050392, -0.01975148729979992, -0.01430785097181797, 0.03369894251227379, 0.0313253216445446, -0.015399033203721046, -0.008825477212667465, -0.05044781416654587, 0.006039803847670555, -0.00754017848521471, 0.006080965977162123, 0.03846191242337227, 0.048140592873096466, 3.988520984421484e-05, -0.012014972046017647, -0.02068505436182022, 0.03344219923019409, -0.016521863639354706, 0.007151997648179531, -0.010528760962188244, -0.04678446054458618, -0.027622535824775696, -0.04986553266644478, 0.0336180180311203, -0.03447829559445381, -0.015839172527194023, 0.02373233623802662, -0.028473295271396637, 0.025878265500068665, 0.016599074006080627, 0.04074026271700859, 0.05949290841817856, -0.014097152277827263, 0.025637993589043617, 0.026554856449365616, 0.03634078428149223, -0.028127996250987053, 0.025347590446472168, 0.03736898675560951, -0.02273830957710743, -0.028511038050055504, -0.0175599567592144, -0.009894100949168205, -0.0252031572163105, -0.013710623607039452, -0.023335808888077736, 0.025057850405573845, 0.018076546490192413, 0.02666633576154709, 0.008927645161747932, 0.033098455518484116, -0.03188535198569298, -0.0165353212505579, -0.009429404512047768, 0.02600111998617649, -0.010870374739170074, -0.03607602417469025, -0.047445762902498245, 0.031203512102365494, -0.013480174355208874, -0.0034162551164627075, 0.0027908189222216606, -0.029305629432201385, 0.017857816070318222, 0.03690128028392792, 0.027720976620912552, 0.006364273373037577, -0.023284995928406715, 0.022862756624817848, 0.04013621434569359, -0.012539968825876713, 0.037846144288778305, 0.03578314557671547, 0.024733809754252434, 0.002834738465026021, 0.023721469566226006, -0.021364055573940277, -0.034004095941782, -0.031335119158029556, -0.03427230939269066, -0.02067357301712036, 0.013531536795198917, 0.023406604304909706, -0.02463555708527565, 0.004986584652215242, -0.022009044885635376, -0.010136207565665245, -0.036712922155857086, -0.00041149777825921774, 0.004963315092027187, -0.003865391481667757, 0.013546611182391644, -0.03828563168644905, 0.03911213204264641, -0.02250613272190094, 0.04302782565355301, -0.019193140789866447, -0.009654680266976357, -0.004174824804067612, -0.013707767240703106, 0.04718746244907379, 0.040254462510347366, 0.05485565960407257, -0.0018741628155112267, 0.04240107908844948, 0.0231429822742939, -0.08038207143545151, -0.01966521330177784, -0.05030449107289314, -0.0223595779389143, -0.004930492024868727, -0.036336518824100494, -0.015136768110096455, 0.004091266542673111, -0.02286207117140293, -0.027427347376942635, -0.019602013751864433, -0.02412951923906803, -0.042962297797203064, -0.05232953652739525, -0.0038837201427668333, -0.02162768691778183, -0.05448530614376068, -0.005101234186440706, 0.043258219957351685, -0.027693642303347588, -0.023618077859282494, 0.015968432649970055, 0.07020623236894608, 0.02508120983839035, -0.00020226930791977793, -0.021979544311761856, 0.05250265821814537, -0.02319004200398922, 0.04315339773893356, -0.037712957710027695, 0.028931643813848495, 0.008436442352831364, 0.04639432951807976, -0.0028883665800094604, -0.003075675806030631, 0.042971521615982056, 0.02924198843538761, -0.0002655430871527642, -0.05365758016705513, -0.001929999329149723, 0.019623301923274994, -0.023877480998635292, -0.016923852264881134, 0.021430328488349915, -0.03387690335512161, -0.030356545001268387, -0.04937059432268143, -0.003556270385161042, -0.015836814418435097, -0.008229151368141174, -0.005176336504518986, -0.03494715690612793, -0.005813500378280878, -0.01892460323870182, 0.015942994505167007, -0.0478987954556942, -0.01919621042907238, -0.05739403888583183, 0.01903783343732357, -0.004171543288975954, -0.002432606415823102, -0.013929224573075771, 0.03347139060497284, 0.006764095276594162, 0.016884947195649147, 0.043599605560302734, 0.007329951040446758, -0.001194399781525135, 0.011552034877240658, 0.008570601232349873, -0.0024472572840750217, 0.012871443293988705, 0.06004694849252701, 0.06496065109968185, 0.03983054682612419, -0.008748607710003853, 0.01389864832162857, 0.007871455512940884, 0.047640975564718246, -0.0015580933541059494, -0.02256801538169384, 0.03643262758851051, 0.03486211225390434, -0.03761431947350502, -0.02523430623114109, -0.02497122250497341, 0.031507737934589386, 0.03571794554591179, -0.02867591567337513, 0.025271639227867126, 0.02173795737326145, 0.006251872982829809, 0.005422136280685663, -0.010709506459534168, 0.023409217596054077, -0.017978012561798096, -0.018465328961610794, -0.03901367634534836, -0.018826043233275414, -0.036761052906513214, 0.012333400547504425, 0.040069445967674255, -0.014185869134962559, 0.016288019716739655, 0.04919777810573578, 0.010980102233588696, 0.03419842943549156, 0.008425758220255375, 0.0029453563038259745, -0.05256955325603485, -0.00038257939741015434, -0.012354090809822083, 0.025370335206389427, 0.048338036984205246, -0.002418885938823223, 0.007857859134674072, -0.028079766780138016, -0.0687158852815628, -0.021214209496974945, 0.05088938772678375, -0.00459092203527689, 0.00569756468757987, -0.007550559937953949, -0.013724650256335735, -0.012193981558084488, -0.028972147032618523, 0.01574711687862873, 0.04595038667321205, 0.0021411438938230276, -0.016391394659876823, -0.06223796308040619, -0.03883839398622513, -0.03913010656833649, 0.017692968249320984, -0.03601674735546112, -0.020923925563693047, 0.04765700921416283, -0.049574680626392365, 0.007221522741019726, -0.04914351552724838, -0.04529498890042305, -0.047761861234903336, -0.056772127747535706, 0.009750568307936192, -0.009586776606738567, -0.0014474326744675636, -0.055917102843523026, -0.01954117976129055, -0.04583994671702385, 0.0061178733594715595, 0.038986288011074066, 0.010014813393354416, 0.03268216922879219, -0.052973080426454544, 0.004602436441928148, 0.04265773296356201, 0.01812305487692356, 0.046388495713472366, 0.003465589601546526, -0.032057635486125946, -0.002263191156089306, 0.007812056224793196, 0.0099765844643116, -0.023748096078634262, -0.029691899195313454, -0.03423988074064255, 0.0358315035700798, -0.035981759428977966, -0.024065354838967323, -0.052309516817331314, -0.03643403947353363, -0.03919478878378868, 0.03500844165682793, -0.017696445807814598, 0.050935257226228714, -0.014267823658883572, -0.010344266891479492, 0.012677697464823723, -0.02238425984978676, 0.013596072793006897, 0.053673312067985535, 0.048041053116321564, 0.03532392904162407, 0.011954517103731632, 0.031611368060112, 0.020314255729317665, -0.046015191823244095, 0.019840190187096596, -0.012052019126713276, -0.01664036698639393, -0.012751732021570206, 0.036951176822185516, 0.014780070632696152, -0.014757047407329082, 0.007375109940767288, 0.016939818859100342, 0.04523742198944092, 0.007149217650294304, -0.03616706281900406, 0.018010633066296577, 0.006216291803866625, 0.004545071627944708, 0.046280089765787125, -0.07774391025304794, -0.02011423371732235, 0.007866917178034782, 0.051070619374513626, -0.005295755807310343, -0.05331581458449364, -0.017484009265899658, -0.008842307142913342, 0.014372450299561024, 0.032122254371643066, 0.06535555422306061, 0.036286648362874985, 0.010041072964668274, 0.0573897659778595, -0.0105771878734231, 0.0016848340164870024, 0.025720665231347084, 0.010263864882290363, 0.03932390362024307, 0.018695808947086334, -0.04439171403646469, 0.041234321892261505, -0.015325977467000484, -0.029587866738438606, -0.009907696396112442, 0.0028443194460123777, -0.04821985214948654, 0.022402172908186913, 0.004720574244856834, 0.029714494943618774, 0.02801295928657055, -0.018136290833353996, -0.006981777958571911, -0.04644469916820526, 0.05831653252243996, 0.027921296656131744, 0.032671403139829636, 0.014257135801017284, 0.009696661494672298, 0.01977238990366459, 0.005723794922232628, 0.04229369014501572, -0.003235139884054661, 0.016954204067587852, -0.006325672380626202, -0.06014794483780861, -0.0005112403305247426, 0.05511346086859703, -0.03165203332901001, -0.0005303354118950665, -0.020338665693998337, -0.02561875618994236, -0.042229074984788895, -0.018886858597397804, -0.022617412731051445, 0.03216275945305824, 0.011657626368105412, -0.039683569222688675, -0.05073200538754463, -0.0026642847806215286, -0.03835023567080498, 0.0106110330671072, 0.019405966624617577, -0.061990927904844284, 0.04168276488780975, -0.009665804915130138, 0.05376319959759712, 0.04393535852432251, 0.012962277047336102, -0.021524952724575996, 0.016714012250304222, -0.08724275976419449, 0.011208289302885532, 0.04449574276804924, -0.00047039659693837166, 0.013329977169632912, -0.011193988844752312, -0.023296620696783066, 0.023294206708669662, -0.042627450078725815, -0.025056229904294014, 0.051844026893377304, 0.004312038887292147, 0.020443515852093697, -0.015541376546025276, -0.03615637496113777, 0.021098610013723373, 0.004746684338897467, -0.02498811110854149, 0.012136247009038925, -0.04427020624279976, -0.0514339804649353, -0.0556345134973526, 0.038817692548036575, 0.03622274100780487, 0.028281182050704956, -0.0643777921795845, -0.03978573903441429, -0.00442352332174778, -0.03447587415575981, -0.023903045803308487, -0.02973645180463791, 0.03450164571404457, -0.040436115115880966, -0.09533949196338654, -0.04429061338305473, -0.02704012021422386, -0.022944195196032524, -0.002175375819206238, 0.002336719771847129, 0.028289102017879486, 0.06274710595607758, 0.013812614604830742, 0.029250657185912132, 0.03787675499916077, 0.03523893654346466, -0.05645421892404556, -0.044913679361343384, 0.0014441786333918571, -0.08114813268184662, 0.024803154170513153, 0.02928008697926998, -0.01924377866089344, -0.05213804543018341, -0.0030486048199236393, 0.039976995438337326, 0.025112707167863846, 0.04182566702365875, -0.007046510931104422, -0.02888559177517891, -0.030488738790154457, -0.016142340376973152, 0.015111763961613178, -0.005170735064893961, 0.008012194186449051, -0.05843781307339668, -0.03025253489613533, -0.000601462961640209, -0.02028205245733261, -0.060992926359176636, -0.02428678423166275, -0.0555061511695385, 0.04123413935303688, 0.030464496463537216, 0.032721664756536484, -0.023392917588353157, 0.04955126717686653, 0.06549036502838135, -0.037679631263017654, 0.0369415320456028, -0.009649248793721199, -0.0012129618553444743, 0.0032491865567862988, -2.083745857817121e-05, -0.022495713084936142, -0.04694599658250809, -0.03249194100499153, -0.01703316532075405, 0.021967777982354164, -0.04353683814406395, 0.007386561017483473, -0.025306791067123413, -0.03407956287264824, -0.016249461099505424, -0.020367512479424477, -0.02998720295727253, 0.034886714071035385, 0.011868664063513279, -0.029554514214396477, 0.0016728525515645742, 0.036146003752946854, -0.056320175528526306, -0.035660386085510254, -0.03974781185388565, 0.023103421553969383, -0.011467724107205868, 0.038064561784267426, -0.03142591938376427, -0.0445903055369854, -0.022594701498746872, 0.0056090522557497025, 0.016100993379950523, -0.028591955080628395, -0.03046099655330181, -0.030461713671684265, -0.013143547810614109, -0.01952097937464714, 0.00829631369560957, -0.035698503255844116, 0.05058499798178673, 0.04756997898221016, 0.06392890959978104, 0.05269826576113701, 0.03246844559907913, 0.04967900365591049, -0.03535320982336998, -0.07577712088823318, -0.017924660816788673, -0.018643641844391823, 0.00845732819288969, 0.0192254651337862, -0.03617104887962341, -0.006871053948998451, 0.0017674157861620188, 0.005769163835793734, 0.009947497397661209, 0.010223899967968464, 0.0464383102953434, 0.004147617146372795, -0.03991488367319107, -0.005594839341938496, 0.0033436527010053396, -0.0028878364246338606, 0.05598603934049606, 0.020228901877999306, 0.010332386940717697, -0.027626534923911095, -0.0241194237023592, -0.030339684337377548, -0.0060376329347491264, -0.03366905823349953, -0.03855021297931671, 0.027132809162139893, -0.007376437541097403, -0.05303582921624184, -0.04306912049651146, -0.05984262004494667, -0.07965478301048279, 0.004883918445557356, 0.01657579094171524, -0.012207106687128544, -0.03922829031944275, -0.032538190484046936, 0.02005632407963276, 0.012782793492078781, 0.020306646823883057, -0.03270508348941803, -0.0296540055423975, 0.021031562238931656, 0.04080675169825554, 0.00913909636437893, 0.01470062043517828, -0.021981870755553246, 0.035872682929039, 0.007374007720500231, -0.011174933053553104, 0.007970372214913368, -0.03733587637543678, -0.0012624068185687065, 0.0010968585265800357, -0.014350766316056252, -0.01106881070882082, -0.01917203515768051, -0.025006284937262535, 0.019850024953484535, -0.03162551298737526, 0.03182294964790344, -0.011514605954289436, 0.012127295136451721, 0.04231903702020645, 0.0075722336769104, 0.015633920207619667, -0.03651721775531769, -0.012809548527002335, 0.014783497899770737, 0.05183873325586319, 0.006638241466134787, -0.019034799188375473, 0.026468070223927498, -0.04219071939587593, 0.02846943773329258, 0.002622785046696663, 0.03280114382505417, -0.030954202637076378, 0.025289295241236687, 0.01631527580320835, 0.0006001581787131727, -0.034179314970970154, -0.020694751292467117, -0.027678167447447777, -0.02248811349272728, -0.030429992824792862, 0.0020314811263233423, 0.0193032119423151, 0.003710490884259343, 0.027407268062233925, -0.0016980264335870743, -0.013932459056377411, -0.0395531952381134, 0.030197681859135628, 0.0011641929158940911, -0.03588635101914406, -0.034810811281204224, -0.040798600763082504, 0.005171488039195538, -0.01915421523153782, 0.013379789888858795, 0.029330620542168617, 0.024879269301891327, 0.01923375017940998, -0.013331626541912556, 0.029409656301140785, -0.026096774265170097, 0.04013875871896744, -0.0268563199788332, 0.050471968948841095, 0.041274458169937134, 0.006573596969246864, 0.009660200215876102, 0.04585619270801544, 0.0344792976975441, 0.018947679549455643, -0.006568582728505135, -0.030811188742518425, 0.008211418986320496, -0.05251536890864372, -0.034683290868997574, -0.027318429201841354, -0.016036013141274452, -0.007561043370515108, 0.0169045589864254, 0.03076389990746975, 0.020443078130483627, 0.017865370959043503, 0.023352479562163353, -0.013645192608237267, 0.025444725528359413, -0.015330423600971699, 0.05010136589407921, -0.014781247824430466, 0.03054860793054104, -0.02369057945907116, 0.006970737595111132, -0.07502645254135132, -0.06829951703548431, -0.010090675204992294, -0.05190921947360039, -0.037939198315143585, 0.018642617389559746, 0.019045550376176834, 0.007002145517617464, -0.027756379917263985, 0.04769232124090195, 0.05734724923968315, -0.000590624229516834, -0.0199256781488657, -0.010851101018488407, 0.03597579896450043, -0.016893157735466957, 0.009404774755239487, 0.015504026785492897, -0.05220434442162514, -0.008313165046274662, 0.036081500351428986, 0.007314153481274843, -0.00564833078533411, -0.004396317061036825, -0.01503649540245533, 0.03734606131911278, 0.013108259998261929, -0.029572447761893272, 0.053598470985889435, 0.00486372783780098, -0.019602011889219284, -0.006746979430317879, 0.047803573310375214, 0.012688752263784409, 0.024086490273475647, 0.056571539491415024, 0.0028946606907993555, 0.015459292568266392, 0.029031069949269295, 0.04427032172679901, 0.01285440381616354, 0.0009877542033791542, 0.02380320243537426, 0.019752852618694305, 0.030753348022699356, -0.01894407346844673, 0.009270704351365566, -0.02776866778731346, -0.061290085315704346, 0.007188998628407717, -0.06090737506747246, 0.04035757854580879, -0.004655295517295599, 0.02201528660953045, -0.0006633732700720429, 0.0011684552300721407, -0.01520311739295721, -0.01478254422545433, 0.03915819153189659, -0.01823297142982483, -0.017119545489549637, -0.03618974983692169, 0.02097821794450283, -0.014346186071634293, 0.04441548511385918, 0.034790586680173874, -0.003232913091778755, -0.0010735765099525452, 0.028850585222244263, 0.05470743775367737, 0.05146431550383568, -0.0016582576790824533, 0.039468854665756226, -0.009856280870735645, -0.08768060803413391, -0.011117788031697273, -0.014258007518947124, -0.026960603892803192, -0.02572522684931755, -0.01637927256524563, 0.03502510115504265, 0.018634198233485222, -0.013823874294757843, 0.034800030291080475, 0.009413455612957478, 0.009790785610675812, 0.03552041947841644, 0.03247746825218201, 0.008900688961148262, -0.026136260479688644, -0.07394092530012131, -0.06679501384496689, -0.06975148618221283, -0.029597025364637375, -0.06635236740112305, -0.04469827562570572, -0.0326479971408844, -0.059240732342004776, -0.01998100057244301, -0.027145205065608025, -0.014921042136847973, -0.0297807939350605, -0.04564948379993439, -0.03300047665834427, 0.022909054532647133, -0.02972196228802204, -0.009623746387660503, 0.012575468979775906, -0.02206471934914589, 0.001588695333339274, 0.02409929409623146, 0.02532636746764183, 0.07262130081653595, -0.06709498167037964, -0.01742541417479515, -0.061577681452035904, -0.06116678565740585, -0.022399215027689934, -0.022858962416648865, 0.000811631849501282, -0.0426785834133625, -0.02345910854637623, -0.05367087945342064, -0.020028458908200264, 0.03087252378463745, -0.04104860872030258, 0.04860996827483177, 0.009351291693747044, -0.02217528223991394, -0.04694032296538353, -0.0681653767824173, -0.045407943427562714, -0.045350100845098495, -0.017073268070816994, 0.022019458934664726, -0.0009982408955693245, 0.021011145785450935, 0.005337294191122055, -0.016717281192541122, 0.03495413064956665, -0.049729760736227036, 0.011186409741640091, -0.062078870832920074, 0.014099584892392159, 0.0038136602379381657, -0.03420121967792511, -0.012976559810340405, 0.03093949519097805, 0.06078430265188217, 0.007385214325040579, -0.0008842130773700774, 0.06555836647748947, 0.019199466332793236, 0.07432787120342255, -0.014543192461133003, 0.011432114988565445, -0.04175310581922531, 0.02641966938972473, -0.025368286296725273, -0.003939465153962374, 0.04458865895867348, 0.07758723199367523, -0.013399188406765461, 0.05366581678390503, 0.02498272806406021, -0.005296944174915552, 0.0424811877310276, -0.01943400129675865, -0.03234223276376724, -0.039792194962501526, -0.06744817644357681, -0.034502625465393066, -0.0714055746793747, -0.036415230482816696, -0.00799965113401413, -0.053683824837207794, -0.047937892377376556, 0.0043908036313951015, -0.012043502181768417, -0.0020346527453511953, 0.03774828836321831, -0.0062125748954713345, -0.024712735787034035, -0.030375469475984573, -0.0033514006063342094, -0.01828608475625515, 0.006949402391910553, -0.003424862865358591, 0.04248204454779625, -0.021499598398804665, -0.08223460614681244, -0.05742422118782997, -0.015729131177067757, -0.003329878207296133, 0.020476818084716797, 0.03900487720966339, 0.0024665372911840677, 0.03453546017408371, -0.020285673439502716, -0.0012683762470260262, -0.04988153651356697, -0.03056245855987072, 0.017139215022325516, -0.03771291300654411, 0.028237875550985336, 0.006844084709882736, 0.030151521787047386, -0.0017945386935025454, -0.03323075920343399, 0.01269980613142252, -0.007737549487501383, 0.014250066131353378, -0.011271022260189056, -0.028442442417144775, -0.013481680303812027, 0.039269108325242996, 0.031927499920129776, 0.03233814984560013, 0.04215432330965996, -0.007663023192435503, 0.019870003685355186, -0.004153660032898188, 0.02775467187166214, 0.03902725502848625, 0.018068630248308182, -0.018151884898543358, -0.04001971706748009, -0.03209000453352928, -0.06194910779595375, 0.019289452582597733, -0.06491506099700928, 0.021156517788767815, 0.04774262011051178, 0.005872080102562904, 0.07265972346067429, 0.05870030075311661, 0.03933896869421005, 0.06873150169849396, -0.03567679226398468, -0.042089223861694336, 0.008160246536135674, -0.016323326155543327, -0.04456401988863945, -0.001357858069241047, -0.016589265316724777, -0.0536026656627655, -0.02951636165380478, 0.011897589080035686, 0.02003348432481289, 0.01949257217347622, 0.01963636465370655, -0.02061261050403118, -0.02560020238161087, -0.005548210348933935, 0.005335348192602396, -0.06602754443883896, 0.013575349003076553, 0.00010130430746357888, -0.008896708488464355, -0.036308687180280685, -0.0441402867436409, 0.011283238418400288, -0.030132673680782318, -0.05749772489070892, -0.020993901416659355, 0.018734684213995934, 0.03204627335071564, 0.008074503391981125, -0.07896999269723892, 0.0020221408922225237, -0.011478601023554802, -0.008325844071805477, 0.022436678409576416, 0.025583110749721527, -0.056116826832294464, 0.03329500928521156, -0.0111390370875597, 0.008951340802013874, 0.018206698819994926, 0.011422386392951012, 0.029081890359520912, 0.008082055486738682, -0.030873529613018036, 0.03598184883594513, -0.0018244560342282057, -0.04819655045866966, 0.01020675990730524, -0.06793749332427979, 0.015004276297986507, 0.0035366101656109095, -0.027565104886889458, -0.03714408352971077, -0.024997103959321976, -0.036320094019174576, -0.017315424978733063, -0.03729310259222984, 0.019116485491394997, -0.011462721973657608, -0.04351544380187988, 0.023479457944631577, -0.05928821861743927, -0.011594511568546295, -0.022739456966519356, 0.019169116392731667, -0.004217121750116348, -0.022051556035876274, 0.04540582373738289, 0.014646794646978378, 0.00660547474399209, 0.07651561498641968, -0.017976250499486923, 0.058740172535181046, 0.04679018631577492, 0.00552571564912796, -0.016977133229374886, 0.022280966863036156, 0.013510605320334435, -0.12177521735429764, -0.023673322051763535, -0.020210545510053635, -0.0605948343873024, -0.015369965694844723, -0.013203755021095276, -0.007561448961496353, 0.019602613523602486, 0.03314904496073723, 0.04184612259268761, 0.016071422025561333, 0.021236052736639977, 0.0027956331614404917, 0.020122066140174866, -0.005913741420954466, 0.022014761343598366, 0.03190884366631508, -0.04005362465977669, -0.016358831897377968, -0.055306460708379745, 0.011334814131259918, 0.05677780881524086, 0.005344747565686703, 0.023709172382950783, 0.01578456535935402, -0.08733586966991425, -0.04717070236802101, -0.038199953734874725, -0.054056793451309204, -0.053111474961042404, 0.01173834502696991, -0.06670767068862915, -0.014993878081440926, -0.00540648540481925, 0.004855160601437092, 0.009106408804655075, 0.021570108830928802, 0.05991030111908913, 0.02631641924381256, 0.002584346104413271, -0.002273082034662366, -0.05287318676710129, 0.0007645418518222868, -0.057433437556028366, -0.03178853169083595, -0.03439923748373985, 0.03387751802802086, -0.0029718978330492973, -0.00280135590583086, 0.061424773186445236, -0.0019096765900030732, 0.004591828677803278, 0.026570171117782593, 0.018804268911480904, 0.042589105665683746, 0.05414343997836113, -0.013327935710549355, -0.013363255187869072, -0.03411657363176346, 0.02030951716005802, 0.02354445308446884, 0.009775650687515736, 0.032911546528339386, 0.030438292771577835, -0.011323386803269386, -0.011426231823861599, -0.029991304501891136, -0.050056662410497665, -0.02806209772825241, -0.023414121940732002, 0.03638097643852234, -0.019485844299197197, 0.006616378668695688, 0.0127151720225811, -0.0003902988974004984, -0.05395008251070976, -0.0027491908986121416, -0.03428642824292183, -0.02071320079267025, -0.006906043738126755, -0.0009040804579854012, -0.04453505575656891, -0.05202107131481171, -0.01701107807457447, 0.046776968985795975, -0.004265715833753347, 0.04360183700919151, 0.05893322080373764, 0.004475848283618689, 0.04269903525710106, -0.018311230465769768, 0.04464293271303177, 0.055483825504779816, 0.06685873866081238, 0.022387385368347168, 0.06230930984020233, 0.04843677580356598, 0.02113424800336361, -0.02852882817387581, -0.010649341158568859, 0.0067224884405732155, -0.021213844418525696, 0.011894859373569489, 0.061864256858825684, 0.0374348908662796, -0.017914993688464165, -0.03421206772327423, -0.01840967684984207, -0.01659863255918026, 0.04490761458873749, -0.04597795754671097, -0.018013468012213707, -0.013776537962257862, -8.131052163662389e-05, 0.04132973775267601, 0.00515255331993103, 0.009736644104123116, 0.014647137373685837, 0.011159272864460945, 0.006846933625638485, -0.04640697315335274, 0.025091027840971947, -0.014602738432586193, 0.013571181334555149, -0.015400605276226997, 0.033173009753227234, 0.04361279681324959, 0.03197801485657692, 0.005495922174304724, 0.013148080557584763, 0.013692817650735378, 0.04148130118846893, 0.049381136894226074, -0.0130570437759161, -0.03195634111762047, 0.04550735279917717, 0.032340627163648605, 0.016345223411917686, 0.0025208499282598495, -0.03782083839178085, -0.018589794635772705, -0.027283988893032074, 0.028344782069325447, 0.0017793431179597974, 0.008632124401628971, -0.04565753787755966, -0.01633485220372677, 0.01934298500418663, 0.01651618629693985, -0.0531480498611927, 0.012507841922342777, 0.020709171891212463, -0.022594310343265533, -0.007148027885705233, -0.002303039189428091, -0.03024711087346077, 0.01948429085314274, -0.021826453506946564, -0.057754889130592346, -0.03151542320847511, 0.0035379708278924227, 0.022488849237561226, -0.0452493354678154, -0.05014866963028908, -0.0381801500916481, -0.02938474342226982, 0.003919145558029413, 0.040477510541677475, 0.037815194576978683, -0.011271502822637558, -0.0006255010957829654, -0.030602997168898582, 0.0028106742538511753, -0.02938561700284481, -0.03582735359668732, -0.01027038786560297, -0.04226500540971756, -0.034865833818912506, 0.04611552134156227, 0.002267134375870228, -0.00994793139398098, 0.02288622409105301, -0.03586241975426674, -0.028529472649097443, 0.036790210753679276, -0.03540807217359543, -0.0347273126244545, -0.002877259161323309, -0.01137502957135439, 0.035060059279203415, 0.00664222426712513, -0.026045922189950943, 0.0010830301325768232, 0.0330178365111351, -0.03131181001663208, -0.031738799065351486, 0.041244182735681534, 0.012774997390806675, 0.031003691256046295, 0.0046344418078660965, -0.0010340173030272126, 0.03635544702410698, 0.031568918377161026, 0.0494447760283947, -0.020696034654974937, 0.01527826115489006, -0.0064961728639900684, -0.06131267920136452, 0.031878840178251266, 0.03698635473847389, 0.007004560437053442, -0.006404941435903311, -0.05530247092247009, -0.0015826080925762653, -0.03639650344848633, -0.018845001235604286, 0.003986535593867302, 0.058624375611543655, 0.05745658650994301, 0.04791718348860741, 0.024554887786507607, -0.012173592112958431, -0.041750527918338776, -0.013713734224438667, 0.02205188199877739, -0.026744309812784195, -0.017237409949302673, -0.036886222660541534, -0.018755637109279633, 0.0069831679575145245, 0.02570466138422489, 0.027385415509343147, -0.005398586858063936, -0.008613192476332188, -0.020978352054953575, -0.003865400794893503, -0.0063229515217244625, -0.02394605055451393, -0.03807518631219864, 0.009618411771953106, 0.015475205145776272, -0.045967817306518555, 0.027587765827775, 0.0036892108619213104, -0.048630256205797195, -0.04782721772789955, -0.05243902653455734, -0.0478510819375515, -0.04467245191335678, -0.002148152096197009, 0.009757992811501026, -0.042259328067302704, -0.04162801802158356, 0.02356095053255558, 0.0124679459258914, 0.012140809558331966, 0.019796952605247498, 0.01219275314360857, 0.010117394849658012, -0.042360708117485046, -0.02608189731836319, -0.010607424192130566, 0.023421935737133026, -0.05040436610579491, 0.023581555113196373, -0.02620825357735157, -0.040789321064949036, -0.005482416599988937, 0.0018967116484418511, -0.012720540165901184, 0.03780929371714592, -0.006665967870503664, 0.027516428381204605, -0.0007855809526517987, -0.03314397856593132, 0.031047571450471878, 0.027970895171165466, 0.01636701263487339, -0.015700796619057655, 0.05232863128185272, -0.019441060721874237, -0.007645885460078716, -0.04813450202345848, -0.02014109119772911, -0.03471847623586655, -0.032121676951646805, -0.010561257600784302, -0.03974508121609688, -0.03171760216355324, -0.023197107017040253, -0.014339709654450417, 0.024539966136217117, 0.013115973211824894, -0.03503303974866867, -0.019341351464390755, -0.0205930657684803, 0.008658788166940212, -0.0559377484023571, -0.006029630545526743, -0.013984909281134605, -0.005444375332444906, -0.007936709560453892, -0.04714217036962509, -0.03540627658367157, -0.0123601658269763, -0.02801482379436493, -0.04281129688024521, 0.03309965878725052, 0.0133934011682868, -0.02395404689013958, 0.03241756930947304, -0.02457442320883274, -0.012304143980145454, -0.004463530145585537, -0.03728606924414635, -0.027399864047765732, -0.022452576085925102, -0.016561994329094887, -0.007503111846745014, 0.02720121294260025, 0.03661014884710312, 0.009367204271256924, -0.0023539953399449587, -0.02175908349454403, -0.02055622637271881, -0.024325285106897354, 0.03282913938164711, -0.037156712263822556, 0.03682800009846687, -0.0284791998565197, -0.06329046189785004, -0.05168866738677025, -0.035249315202236176, -0.054017115384340286, -0.016583522781729698, 0.0031532791908830404, 0.01431348267942667, -0.018419325351715088, 0.03439079597592354, -0.03514551371335983, -0.040383197367191315, -0.002049117349088192, 0.03941819444298744, -0.020678546279668808, -0.012569483369588852, -0.004835275001823902, 0.028898898512125015, 0.03484572842717171, -0.015245405957102776, -0.008580347523093224, 0.050743646919727325, 0.01006990298628807, 0.031698018312454224, -0.04450716823339462, 0.03753890097141266, -0.01443080510944128, 0.0116732744500041, 0.021804850548505783, -0.04246179759502411, 0.015469658188521862, 0.013475802727043629, 0.04120219498872757, 0.009313687682151794, 0.06341589987277985, -0.021402398124337196, -0.0242904219776392, 0.00769020477309823, 0.029067078605294228, -0.004005111288279295, -0.030503040179610252, -0.0199612844735384, -0.03309894725680351, 0.0024121340829879045, -0.060691047459840775, -0.00913841649889946, -0.0036417702212929726, -0.0011634111870080233, -0.013198708184063435, 0.009339582175016403, -0.03928536921739578, -0.014249760657548904, -0.026433389633893967, 0.021378343924880028, 0.024725547060370445, 0.005088345613330603, 0.03263835608959198, 0.002509616781026125, 0.04068455845117569, -0.0013826466165482998, -0.00978236272931099, -0.026628099381923676, 0.026875602081418037, 0.00035569682950153947, -0.0054397135972976685, -0.015937507152557373, 0.029429813846945763, 0.019025227054953575, 0.037215668708086014, 0.02833971008658409, -0.03778032213449478, -0.007024472113698721, -0.002191703300923109, 0.016388816758990288, 0.012316337786614895, 0.04061265289783478, 0.021855661645531654, -0.01124968659132719, -0.0032302935142070055, 0.02212667092680931, -0.049799274653196335, -0.0004807378863915801, -0.061642125248909, -0.03471396490931511, -0.06954178214073181, 0.01772972196340561, -0.0007865764782764018, 0.017127247527241707, 0.023830123245716095, -0.031984683126211166, 0.029949909076094627, 0.03352084383368492, -0.04698624834418297, -0.07615672796964645, -0.02428472228348255, -0.02152148261666298, -0.03048199974000454, -0.0064554475247859955, -0.06023145467042923, -0.015613395720720291, -0.047706786543130875, -0.0059992289170622826, 0.0007421397021971643, 0.04147354140877724, -0.032547615468502045, 0.026351263746619225, 0.021310193464159966, 0.0036242688074707985, 0.005882419645786285, 0.033642079681158066, -0.01119986828416586, -0.024194028228521347, -0.026423098519444466, 0.030899595469236374, 0.01698826067149639, -0.0023734294809401035, 0.030859140679240227, 0.00843783188611269, 0.05149145424365997, -0.01721951737999916, -0.024960335344076157, -0.02262165956199169, -0.04831881821155548, -0.029261566698551178, -0.05744771286845207, 0.018564363941550255, -0.01377785298973322, -0.027785304933786392, 0.018904073163866997, -0.045268114656209946, 0.01957651413977146, 0.032923370599746704, -0.01853620633482933, -0.009239592589437962, 0.016239548102021217, 0.004100657068192959, 0.04900156334042549, -0.02662581019103527, 0.01771053485572338, 0.033295176923274994, 0.033873558044433594, 0.02201322466135025, 0.010761458426713943, 0.00826335046440363, 0.01496211439371109, -0.025598207488656044, 0.042385611683130264, -0.024738691747188568, 0.017163608223199844, -0.033497028052806854, -0.0006993748247623444, -0.02580576203763485, 0.02335159294307232, 0.007004269398748875, 0.02811301127076149, 0.011865337379276752, 0.019499555230140686, 0.007020284421741962, -0.039200589060783386, 0.045419491827487946, 0.011942265555262566, -0.04855852574110031, -0.030947284772992134, 0.03460002690553665, -0.006703982595354319, 0.03245231881737709, -0.028452249243855476, -0.0037056703586131334, -0.014172051101922989, -0.006723335944116116, -0.024445151910185814, -0.02766345627605915, -0.002078423975035548, 0.00024260260397568345, -0.01163629163056612, -0.006319139152765274, -0.03118402510881424, -0.058238741010427475, -0.009883984923362732, 0.009321237914264202, -0.03208622336387634, 0.0027377335354685783, 0.0016462807543575764, 0.011911675333976746, -0.032440219074487686, 0.011320951394736767, 0.0032901489175856113, 0.0249524787068367, 0.04538744315505028, -0.0014072447083890438, 0.005163036286830902, -0.02964533492922783, 0.0215179193764925, 0.02968185395002365, -0.041128162294626236, 0.011831802316009998, 0.03924504667520523, -0.004355861339718103, 0.011034381575882435, -0.013964525423943996, -0.023269370198249817, 0.016347872093319893, -0.01625104993581772, -0.03273116052150726, -0.042463257908821106, -0.03098016045987606, 0.0496552437543869, 0.03388318419456482, 0.0463140532374382, -0.03123265877366066, 0.059598855674266815, -0.003539359662681818, -0.045182906091213226, 0.0024804696440696716, -0.042394574731588364, -0.03705133497714996, 0.02305741235613823, 0.029534921050071716, 0.01208408735692501, -0.04413212463259697, -0.04364808648824692, 0.010715979151427746, -0.06301108747720718, -0.06203807145357132, -0.02299838699400425, 0.04477262124419212, 0.033331941813230515, 0.04557977244257927, -0.00233006221242249, -0.0024600126780569553, -0.04042033478617668, -0.03315355256199837, -0.024444323033094406, -0.02673734351992607, 0.008857058361172676, 0.010206226259469986, -0.016618473455309868, 0.0605662539601326, 0.06656990945339203, 0.0816519483923912, 0.08111917972564697, -0.028358617797493935, -0.021823564544320107, -0.06860905140638351, -0.023515354841947556, 0.03287096694111824, 0.00042150201625190675, 0.011108508333563805, 0.003936384338885546, -0.018403038382530212, 0.025338713079690933, 0.04145289212465286, -0.034490883350372314, -0.034411460161209106, 0.025443704798817635, -0.01698114536702633, 0.016756197437644005, -0.03522573783993721, 0.03656532242894173, -0.06609728187322617, 0.00987765472382307, 0.007740876171737909, -0.011378897354006767, 0.014560719020664692, 0.012984518893063068, -0.027141602709889412, -0.021398721262812614, 0.02875930815935135, -0.030152276158332825, -0.02845039963722229, 0.03119431436061859, -0.012147377245128155, 0.009312212467193604, -0.0591922365128994, -0.04102221503853798, -0.0322825126349926, -0.014327269978821278, 0.04235444217920303, 0.06053769588470459, 0.012403706088662148, 0.019248196855187416, -0.02114194817841053, -0.023900384083390236, 0.028250059112906456, 0.0035163506399840117, 0.003657673019915819, 0.004136402625590563, -0.02877657860517502, -0.021524641662836075, 0.006429160945117474, 0.03697000443935394, -0.020339781418442726, 0.0030479938723146915, -0.029242990538477898, -0.010095338337123394, -0.005565260071307421, -0.06027163192629814, -0.05346369370818138, 0.007939672097563744, -0.07284452021121979, -0.03927428275346756, 0.02112846076488495, -0.015764012932777405, 0.008208636194467545, -0.02816685661673546, -0.029349900782108307, -0.026987066492438316, -0.00017978210235014558, -0.05457065999507904, -0.06268373876810074, -0.009476394392549992, -0.04235992580652237, -0.006563284900039434, -0.04005829244852066, 0.022281652316451073, -0.021024947986006737, -0.008779896423220634, -0.053809747099876404, 0.047765690833330154, 0.06445399671792984, -0.01380427461117506, 0.05628108233213425, -0.020795146003365517, -0.023126987740397453, -0.007648979313671589, 0.03263765573501587, 0.02709895744919777, -0.007782195694744587, 0.008343691006302834, -0.015824975445866585, -0.03685005009174347, 0.02773953229188919, 0.04076765850186348, -0.008646701462566853, 0.01129588671028614, 0.03329960256814957, 0.039442598819732666, 0.025586258620023727, -0.008316850289702415, -0.00569696631282568, 0.03801683336496353, 0.03650425374507904, -0.010129052214324474, -0.028977427631616592, 0.019986186176538467, -0.001311429194174707, -0.009860998950898647, 0.009927505627274513, -0.03889021277427673, -0.01592777855694294, 0.00809033028781414, 0.03115524910390377, 0.010263611562550068, 0.022426210343837738, 0.017012441530823708, -0.029989100992679596, 0.007540127262473106, -0.030750751495361328, -0.02815369889140129, -0.013843662105500698, -0.017985282465815544, 0.046026162803173065, 0.0011870539747178555, 0.016430944204330444, -0.029361184686422348, -0.018023699522018433, 0.016098130494356155, 0.003594266716390848, -0.05762951448559761, 0.005932851228863001, -0.04969143122434616, 0.008945362642407417, 0.02207711525261402, -0.0675276666879654, -0.02362486720085144, -0.002069467445835471, -0.02085171267390251, 0.03511856868863106, 0.044287677854299545, 0.03873230516910553, -0.01699332520365715, -0.01282962504774332, 0.02103200927376747, -0.017108554020524025, 0.03541367128491402, 0.03660742938518524, 0.015327390283346176, 0.0226118303835392, 0.010841688141226768, -0.020913569256663322, 0.04290685057640076, 0.023124579340219498, 0.04145637899637222, 0.06410583853721619, 0.02934202365577221, 0.014752163551747799, 0.049669165164232254, 0.037836480885744095, 0.05768020078539848, 0.0206680316478014, 0.03779537230730057, -0.012604707852005959, 0.020617211237549782, -0.03941300883889198, -0.024638792499899864, 0.0073067015036940575, 1.7758176909410395e-05, -0.015800971537828445, 0.025808652862906456, -0.018118495121598244, 0.026814738288521767, 0.0021640113554894924, -0.011373457498848438, 0.05255068838596344, 0.03819277137517929, -0.008450019173324108, -0.023221826180815697, -0.0036466766614466906, 0.035949382930994034, -0.040704723447561264, 0.011832012794911861, -0.04859447106719017, 0.020167142152786255, 0.019498825073242188, 0.020212044939398766, 0.03245622292160988, 0.03134390711784363, 0.041927315294742584, -0.010246019810438156, 0.01847076416015625, -0.05250995606184006, -0.04324982687830925, -0.044468242675065994, -0.050564393401145935, 0.0035466800909489393, -0.010751376859843731, -0.017032992094755173, -0.01710565760731697, 0.04592687264084816, 0.0012050659861415625, 0.016488898545503616, -0.04024961218237877, 0.04471421241760254, 0.042523033916950226, -0.019336052238941193, 0.02443263679742813, 0.01690923236310482, 0.04084097221493721, -0.04798951745033264, -0.02051711268723011, -0.05456641688942909, -0.04323763772845268, 0.03420409932732582, -0.010136976838111877, -0.043650202453136444, -0.0005369112477637827, -0.013022640720009804, 0.012225461192429066, 0.028105895966291428, -0.015396824106574059, 0.011007493361830711, 0.020223362371325493, 0.04489871859550476, 0.07982425391674042, 0.04304375499486923, 0.0017092174384742975, -0.03469536080956459, 0.0005024894489906728, -0.040305741131305695, -0.02248588390648365, -0.0232743788510561, -0.015966419130563736, 0.005794517695903778, -0.00642675394192338, -0.0382220633327961, 0.020821070298552513, -0.029904428869485855, -0.01818910427391529, 0.0315413698554039, -0.008736525662243366, -0.02587459422647953, -0.020963648334145546, 0.0014809720451012254, -0.002774955239146948, -0.019593633711338043, -0.003827488049864769, 0.0020399235654622316, -0.019596870988607407, 0.008087915368378162, 0.03396529331803322, -0.008996271528303623, -0.004581359680742025, 0.007567490916699171, 0.0147913983091712, 0.020184891298413277, 0.02771707810461521, -0.0025811458472162485, -0.0003720087406691164, 0.03428741171956062, -0.030481645837426186, -0.06368842720985413, -0.0012015809770673513, -0.06319081783294678, -0.030000869184732437, 0.03662232682108879, -0.0022914705332368612, 0.05075698345899582, -0.014261957257986069, 0.013617945834994316, 0.0012735174968838692, 0.0016333049861714244, 0.010287848301231861, 0.038312770426273346, 0.018595069646835327, -0.009684145450592041, 0.047926630824804306, 0.03172874450683594, -0.017055094242095947, 0.017867570742964745, 0.01957179233431816, -0.023447632789611816, -0.014871026389300823, -0.016107559204101562, 0.003265725914388895, -0.023135071620345116, -0.0012027855264022946, -0.04469965025782585, -0.021757841110229492, 0.009258982725441456, 0.05679937079548836, -0.004537348169833422, 0.06853821873664856, 0.04688294231891632, -0.0032999354880303144, 0.03956734389066696, -0.05167604237794876, -0.010146173648536205, -0.03087487630546093, 0.00679031340405345, -0.059518977999687195, -0.04785418510437012, -0.02532118186354637, -0.090400330722332, -0.059577684849500656, -0.0011115297675132751, 0.015084388665854931, -0.04226965084671974, 0.024302750825881958, 0.005695664789527655, 0.0603267177939415, -0.007918374612927437, -0.08160010725259781, -0.04099654778838158, 0.002888238290324807, 0.05609695985913277, 0.017674041911959648, 0.028388898819684982, 0.009176574647426605, -0.008346215821802616, -0.030747205018997192, -0.04043392091989517, 0.007288507651537657, 0.029766909778118134, -0.03394085913896561, 0.027720801532268524, -0.005867083556950092, -0.025767521932721138, 0.0069523099809885025, -0.022413965314626694, 0.06390880793333054, 0.04546285420656204, 0.024685261771082878, 0.03864572197198868, 0.07398629933595657, -0.004524570889770985, 0.06329945474863052, 0.08353874087333679, 0.022469384595751762, 0.0780506357550621, 0.03826559707522392, 0.044685669243335724, 0.00476396968588233, -0.01658666878938675, 0.02015845477581024, 0.05679411068558693, 0.014767969958484173, -0.0005947139579802752, 0.02921515889465809, 0.004527110140770674, 0.017103951424360275, -0.017560092732310295, -0.01245406549423933, -0.04851658642292023, -0.004020978230983019, -0.04614432156085968, -0.04113440960645676, -0.07587847113609314, -0.03926895558834076, -0.03797631338238716, -0.06574647128582001, -0.06747458130121231, -0.05169041082262993, -0.025392895564436913, 0.0026212746743112803, -0.018579157069325447, -0.0449712872505188, -0.026365205645561218, -0.015195274725556374, 0.014694607816636562, -0.013563656248152256, 0.0028775588143616915, 0.039320845156908035, 0.012234074994921684, 0.025483127683401108, -0.04728856682777405, 0.06225315108895302, 0.00715285912156105, 0.049548689275979996, 0.007592629641294479, -0.015543033368885517, -0.027557900175452232, -0.001569719286635518, -0.0068601761013269424, 0.030119214206933975, -0.031039001420140266, 0.021873831748962402, 0.009839402511715889, 0.07133155316114426, -0.009155978448688984, -0.024409474804997444, -0.008203152567148209, -0.053871046751737595, 0.012159086763858795, 0.04424893856048584, -0.007255400065332651, 0.08386311680078506, 0.02540896274149418, 0.02786683663725853, 0.06400192528963089, 0.05445808172225952, 0.05721665546298027, 0.01008871104568243, 0.026790063828229904, -0.01100477110594511, -0.018162619322538376, -0.004574071615934372, -0.021283987909555435, 0.022507894784212112, -0.0022736326791346073, 0.028951382264494896, 0.009018291719257832, 0.046244144439697266, 0.02842707931995392, -0.04059919714927673, 0.0498967170715332, -0.009497945196926594, 0.06921333819627762, 0.03166664391756058, -0.0026659199502319098, 0.04858580231666565, 0.030074620619416237, -0.04861845448613167, -0.004906728398054838, -0.03891243785619736, -0.06942569464445114, -0.003587879939004779, -0.007211694493889809, 0.012876111082732677, -0.0468255877494812, -0.045959241688251495, -0.010800447314977646, -0.04349526762962341, 0.00821987260133028, 0.004713233560323715, 0.025872282683849335, 0.0037371760699898005, -0.03599300980567932, 0.018357351422309875, -0.044734906405210495, 0.03247298300266266, 0.0015686657279729843, 0.023428210988640785, -0.03307998925447464, -0.006350086536258459, -0.015254423022270203, -0.033991921693086624, -0.050844524055719376, -0.021298615261912346, 0.01785391755402088, 0.020623305812478065, -0.010271448642015457, 0.025904817506670952, -0.010056721046566963, -0.030727235600352287, -0.034620244055986404, 0.013383474200963974, 0.02529723010957241, 0.07255341112613678, 0.013085597194731236, 0.010686453431844711, 0.010149701498448849, -0.030119244009256363, -0.029013458639383316, -0.0019480480113998055, -0.017477910965681076, -0.011386005207896233, -0.004504542797803879, -0.03773273155093193, -0.017728036269545555, 0.020197773352265358, 0.016323959454894066, 0.003948143217712641, 0.0209017526358366, -0.00963106844574213, 0.02995922416448593, -0.025598138570785522, 0.016584273427724838, -0.020092859864234924, 0.07130897045135498, -0.02731090597808361, -0.004860979504883289, -0.0013256021775305271, 0.045220497995615005, 0.05520647019147873, 0.039279136806726456, 0.011471359059214592, 0.010062095709145069, -0.015513412654399872, -0.05193046107888222, -0.04003575071692467, 0.03341950848698616, 0.0038747854996472597, -0.03882148116827011, -0.03216700255870819, 0.029031934216618538, -0.028563590720295906, 0.06554754078388214, 0.032948996871709824, 0.0016122028464451432, -0.04568835347890854, -0.041144777089357376, 0.06681506335735321, -0.04947534203529358, -0.030782878398895264, -0.016245441511273384, 0.056344468146562576, 0.05016321316361427, 0.04154851660132408, 0.03421536087989807, 0.01937076263129711, 0.04940877482295036, -0.0002861020329874009, 0.051003310829401016, 0.01442735269665718, -0.03691940754652023, -0.001114920130930841, 0.037131473422050476, 0.00010337342246202752, -0.013183667324483395, -0.01109336782246828, 0.031949467957019806, -0.01371342595666647, -0.008243539370596409, 0.04814405366778374, 0.005111966747790575, -0.03832000866532326, -0.019487090408802032, -0.05292937159538269, -0.007519888691604137, -0.05481409654021263, 0.013910498470067978, 0.026280172169208527, -0.013081002049148083, 0.00831571500748396, 0.00749287661164999, 0.019361628219485283, 0.003371069673448801, -0.005819883197546005, 0.003963378258049488, -0.008831970393657684, -0.019070852547883987, -0.059456631541252136, -0.02986542508006096, -0.020680613815784454, -0.039794135838747025, 0.01062866859138012, -0.022120948880910873, -0.009319438599050045, -0.0944874957203865, -0.04638029634952545, -0.05078103393316269, 0.026534264907240868, 0.03235481306910515, -0.025965295732021332, 0.01990746520459652, -0.008287351578474045, 0.0023803128860890865, 0.02765839733183384, 0.0032354684080928564, 0.056386448442935944, 0.003632711246609688, 0.03514035791158676, -0.020800549536943436, -0.02875622548162937, 0.03256279602646828, -0.03809419646859169, 0.03651783987879753, -0.011758040636777878, 0.016650578007102013, 0.012490413151681423, -0.03584830090403557, 0.0006883205496706069, -0.021713221445679665, 0.022946439683437347, -0.014819420874118805, 0.024240484461188316, -0.05650952458381653, 0.01581891067326069, -0.005966666620224714, -0.024761540815234184, -0.024173079058527946, -0.024782313033938408, -0.06134369969367981, -0.005604524165391922, 0.041539110243320465, 0.02123069390654564, 0.00871738325804472, -0.05547893047332764, -0.024624284356832504, 0.028362438082695007, 0.014644176699221134, -0.016039563342928886, 0.039440225809812546, 0.04672187194228172, -0.0033929150085896254, -0.02153456211090088, 0.00857206154614687, -0.034265387803316116, 0.033222097903490067, -0.0022682775743305683, 0.030053013935685158, -0.010229894891381264, -0.014592981897294521, 0.014700215309858322, -0.02636384218931198, -0.020176727324724197, -0.05680699273943901, -0.08165080100297928, -0.05181218683719635, -0.05496542528271675, -0.03465975821018219, -0.03084808774292469, 0.02131550759077072, -0.0074395048432052135, -0.02888748236000538, 0.03222211077809334, 0.006431827321648598, -0.032386414706707, -0.03155585005879402, 0.021465517580509186, -0.03597777709364891, -0.031471915543079376, -0.016230721026659012, -0.02314097248017788, -0.011746102012693882, 0.01659340038895607, -0.019409921020269394, 0.05677345395088196, 0.047058019787073135, 0.017169084399938583, 0.02824397385120392, 0.010176445357501507, -0.019719820469617844, -0.022024713456630707, -0.0021384907886385918, -0.006631374359130859, -0.015911240130662918, 0.00492143677547574, -0.04038567095994949, -0.021863117814064026, 0.01514414232224226, 0.03310894966125488, -0.022374587133526802, -0.012708070687949657, 0.0024693526793271303, 0.04875500127673149, -0.01561493519693613, 0.024498209357261658, -0.0499706007540226, -0.03566361591219902, -0.04056577384471893, -0.0025754314847290516, -0.01935967057943344, -0.020983316004276276, 0.0348367802798748, 0.024738967418670654, -0.02034418284893036, 0.0024548633955419064, 0.0006268038414418697, -0.03435546159744263, 0.010984730906784534, -0.05802597105503082, -0.0060664755292236805, -0.027842020615935326, 0.02469896897673607, -0.02820020355284214, -0.002845966489985585, 0.05258166044950485, 0.047493692487478256, 0.0030272831209003925, -0.024315591901540756, -0.044214606285095215, -0.04368498921394348, 0.012138092890381813, 0.0054544080048799515, -0.0229751355946064, -0.045807771384716034, -0.04804610833525658, -0.07468312978744507, 0.0051367380656301975, -0.01884034462273121, -0.03726035729050636, 0.00922419223934412, 0.0030733118765056133, 0.06590016931295395, 0.054442793130874634, 0.005388922058045864, 0.02874574437737465, 0.056470394134521484, 0.04272609204053879, 0.02712814323604107, 0.035674091428518295, -0.05428179353475571, -0.02397323027253151, 0.02293848805129528, -0.03377697616815567, 0.03324120119214058, 0.029911404475569725, 0.04507197439670563, 0.03441409394145012, 0.024021800607442856, 0.014493132010102272, 0.030857127159833908, 0.015056511387228966, 0.022618131712079048, 0.014681397937238216, 0.002973186085000634, -0.03515824303030968, -0.023146336898207664, -0.02773965150117874, 0.058156002312898636, 0.05048904940485954, 0.008437410928308964, -0.020867833867669106, 0.014064332470297813, 0.0026355204172432423, -0.012887577526271343, 0.05966709926724434, 0.042760904878377914, 0.02807435393333435, -0.00976729579269886, 0.005722078960388899, -0.02967512048780918, 0.03276252746582031, -0.013151413761079311, -0.04995592683553696, -0.042960986495018005, -0.02724163979291916, 0.01921195164322853, -0.012567560188472271, -0.016123317182064056, -0.003391802543774247, 0.022419605404138565, -0.040386445820331573, -0.06262093037366867, -0.0419769212603569, -0.04287555068731308, -0.04419838264584541, 0.011925055645406246, 0.02306392788887024, -0.03186069056391716, 0.0158355925232172, 0.006768933963030577, 0.022010035812854767, 0.033329010009765625, -0.01773158088326454, -0.023358913138508797, 0.029619239270687103, 0.03463907539844513, -0.03612247109413147, -0.027961967512965202, -0.032847531139850616, 0.012866760604083538, 0.006575312465429306, 0.021788684651255608, 0.03905622661113739, 0.011564563028514385, 0.031643107533454895, 0.011532832868397236, 0.06437084078788757, 0.012796263210475445, -0.005539131350815296, -0.044350024312734604, -0.011628425680100918, -0.013937119394540787, -0.038257766515016556, -0.04349503293633461, 0.001157035119831562, 0.03357714042067528, 0.014356489293277264, 0.02732498198747635, 0.02732112817466259, 0.042641475796699524, -0.02782384119927883, 0.02531660720705986, -0.0029976002406328917, -0.008678103797137737, -0.04430720955133438, -0.06806310266256332, 0.02682727389037609, 0.031193310394883156, 0.016325615346431732, 0.019562410190701485, -0.010459460318088531, 0.02221699245274067, -0.0654074028134346, 0.014265792444348335, -0.0367138497531414, 0.013828163966536522, -0.03523306921124458, 0.03767582029104233, 0.018246464431285858, -0.06905628740787506, -0.030574720352888107, -0.009924865327775478, 0.00258171116001904, -0.04481058567762375, -0.01865406148135662, 0.012176589109003544, -0.011213532648980618, 0.06327419728040695, 0.018806109204888344, 0.06399684399366379, -0.01502161007374525, 0.030422551557421684, 0.02104593999683857, 0.04003909230232239, 0.006874211598187685, 0.06095577031373978, 0.03484462946653366, 0.03573333099484444, 0.06344932317733765, 0.03296207636594772, -0.0006875668186694384, 0.01167493686079979, 0.03699769079685211, 0.040039774030447006, -0.02768349088728428, -0.008932597003877163, 0.01001512911170721, 0.06851954013109207, 0.01221118588000536, 0.006136499810963869, 0.04015948250889778, 0.058138154447078705, -0.027657557278871536, -0.028133714571595192, -0.06499027460813522, 0.006090864073485136, 0.005649325903505087, 0.01000394206494093, 0.01979709602892399, -0.006270974408835173, -0.03796685114502907, 0.009563283994793892, -0.016538027673959732, -0.048946261405944824, -0.007420298643410206, -0.04326917603611946, -0.03781243786215782, 0.011763792484998703, -0.01930314674973488, -0.01067354716360569, 0.009845714084804058, -0.0343051515519619, -0.0007112976745702326, -0.007755901198834181, 0.011000880971550941, 0.024521347135305405, 0.01423118356615305, 0.04485886171460152, 0.0037771814968436956, 0.03850146755576134, -0.023571636527776718, 0.05636534094810486, -0.0010046223178505898, 0.003699422115460038, -0.02592010796070099, 0.0013480777852237225, 0.04255181550979614, 0.008732992224395275, -0.017817297950387, 0.010680765844881535, 0.037863682955503464, -0.0014304110081866384, 0.0538177490234375, 0.004206374753266573, -0.04411150515079498, -0.06268121302127838, -0.013957226648926735, -0.005176618695259094, -0.038061801344156265, -0.008987769484519958, 0.006855442654341459, 0.0014190437505021691, -0.004104286432266235, 0.0656561329960823, 0.0355418361723423, 0.03915408253669739, -0.0006485669291578233, 0.033475611358881, 0.010809664614498615, 0.04489396512508392, -0.0006108550587669015, 0.01703338883817196, 0.054409459233284, 0.0513041689991951, 0.033981528133153915, -0.04129353165626526, -0.05651518702507019, 0.013249658979475498, -0.05687135085463524, -0.0581202507019043, -0.02392602525651455, 0.034567691385746, 0.048784103244543076, 0.02205672115087509, 0.02870973013341427, -0.014806113205850124, -0.033756375312805176, 0.022280381992459297, 0.008737554773688316, 0.04384850710630417, 0.06618399918079376, 0.010549277998507023, 0.04078979790210724, -0.0007344440673477948, 0.05858347564935684, 0.05065111443400383, -0.03246074542403221, 0.05543984845280647, 0.06334801763296127, 0.0076155634596943855, 0.04676409438252449, 0.011258161626756191, -0.011776390485465527, 0.039050664752721786, -0.023972975090146065, -0.00025260765687562525, 0.005244761239737272, 0.019562406465411186, -0.007144392933696508, -0.024700308218598366, -0.03640785813331604, 0.00014827503764536232, -0.010067828930914402, 0.0018652479629963636, 0.0916125699877739, -0.0007121938397176564, 4.2232331907143816e-05, -0.0009339899406768382, -0.011033747345209122, -0.028709422796964645, -0.0009007932967506349, 0.01912681572139263, -0.01303051132708788, -0.023697560653090477, -0.010299626737833023, -0.011075525544583797, 0.053905464708805084, 0.04491385072469711, 0.03070877492427826, 0.012669886462390423, 0.02550772950053215, -0.04577473923563957, 0.021725498139858246, 0.012185409665107727, -0.008244943805038929, -0.004816828761249781, 0.08622531592845917, 0.03683709353208542, -0.022305626422166824, -0.0067246221005916595, -0.016929354518651962, -0.01866035908460617, -0.023543788120150566, -0.027738651260733604, 0.028938258066773415, -0.06037084758281708, -0.0206315815448761, -0.045037642121315, -0.0648629441857338, -0.02058510109782219, -0.021810630336403847, -0.031296487897634506, -0.0006468015490099788, 0.05146308243274689, -0.024886205792427063, -0.00658990116789937, 0.03236575424671173, -0.06743984669446945, -0.04492611065506935, -0.037397462874650955, -0.009772147051990032, -0.005744371097534895, -0.0015456180553883314, -0.010458395816385746, -0.009429887868463993, 0.021267756819725037, -0.01650252379477024, -0.0031309914775192738, 0.02300913818180561, -0.010629096999764442, 0.020097561180591583, -0.03261347487568855, -0.090369313955307, 0.04511166363954544, -0.039182279258966446, -0.04676971212029457, -0.05549143627285957, 0.00977717712521553, 0.015477764420211315, -0.024394499137997627, -0.020018041133880615, -0.04516451433300972, 0.013829792849719524, -0.007726866286247969, -0.030165500938892365, -0.02154146134853363, -0.006773833185434341, -0.03753181919455528, -0.05590385943651199, -0.02612696960568428, -0.036058831959962845, 0.028424004092812538, 0.029071617871522903, 0.024963241070508957, 0.02508504129946232, 0.04040180519223213, 0.039975300431251526, -0.03614358976483345, -0.04023521766066551, -0.006870634853839874, 0.02200501412153244, 0.0396936871111393, 0.06070195510983467, 0.002025030320510268, 0.047590840607881546, 0.02074345387518406, -0.035403404384851456, 0.017996735870838165, -0.007551540620625019, 0.07483232021331787, -0.025848813354969025, 0.04070725291967392, 0.03880148380994797, 0.01952175982296467, -0.03944398835301399, -0.028140006586909294, 0.020903365686535835, 0.08366904407739639, 0.04980241134762764, -0.016657503321766853, -0.03184062987565994, 0.0038927188143134117, 0.003359603462740779, 0.010897147469222546, -0.008070803247392178, -0.0011898530647158623, -0.024340717121958733, -0.009826700203120708, -0.065576933324337, -0.034934863448143005, 0.018622878938913345, 0.03202354535460472, -0.04798391833901405, -0.0002964653249364346, -0.051415905356407166, 0.022237690165638924, -0.0030217901803553104, 0.02836226113140583, -0.001171486801467836, -0.03649229556322098, 0.014553030952811241, 0.026807771995663643, 0.008873334154486656, -0.008245251141488552, -0.02339361421763897, 0.003232614602893591, 0.03317806497216225, 0.03926542401313782, -0.0040717837400734425, -0.028503473848104477, 0.061746470630168915, -0.003713918151333928, -0.03790220245718956, 0.025901181623339653, 0.032656170427799225, 0.028573453426361084, -0.08718280494213104, 0.02989925630390644, -0.010556647554039955, 0.004223271273076534, -0.01255935151129961, 0.02298806421458721, 0.01436722744256258, -0.05147859454154968, -0.007677854970097542, -0.017792172729969025, -0.0363924577832222, -0.015880856662988663, -0.08826140314340591, -0.04419361427426338, 0.020648356527090073, -0.05046629160642624, -0.023867638781666756, -0.018257301300764084, 0.028276266530156136, 0.03889671713113785, 0.021215466782450676, 0.045773182064294815, 0.07894010096788406, 0.015384274534881115, 0.015042531304061413, 0.07258057594299316, 0.030286986380815506, 0.02411140501499176, 0.04340974614024162, 0.05406388267874718, 0.04084664210677147, 0.01976226083934307, 0.004415470641106367, -0.05117137357592583, 0.01805332489311695, -0.02437148056924343, -0.017197731882333755, -0.01703055202960968, -0.08583923429250717, -0.06781448423862457, -0.04714440181851387, 0.05951059237122536, -0.05323482304811478, -0.0030959106516093016, 0.052630096673965454, 0.06604818999767303, 0.017539063468575478, 0.01295484695583582, -0.01741199754178524, -0.06182663142681122, 0.028685182332992554, 0.04897585138678551, 0.011631197296082973, 0.01294392254203558, 0.06932607293128967, 0.019302116706967354, -0.012803678400814533, -0.028479548171162605, -0.019411705434322357, -0.029489727690815926, -0.018261995166540146, -0.029650408774614334, -0.03977314755320549, 0.008706263266503811, -0.027687883004546165, -0.032872479408979416, 0.014632431790232658, -0.0670231282711029, -0.00022756379621569067, -0.030235309153795242, 0.030980007722973824, 0.016277054324746132, 0.028531916439533234, -0.0026046792045235634, -0.051402658224105835, -0.012319676578044891, -0.012588739395141602, -0.01412990316748619, 0.00012570142280310392, 0.006188901606947184, -0.013627920299768448, -0.024350415915250778, -0.028579123318195343, 0.025489283725619316, -0.026021374389529228, 0.04265471175312996, -0.008150084875524044, 0.010612951591610909, 0.04496394842863083, 0.034778788685798645, 0.03485507145524025, -0.008990401402115822, -0.026375707238912582, 0.03390298783779144, 0.02241959050297737, 0.026293126866221428, -0.028651021420955658, 0.012778222560882568, -0.03554212674498558, 0.034179866313934326, -0.030172279104590416, -0.0047663976438343525, -0.006805563345551491, 0.035422224551439285, 0.03179371729493141, -0.04360292851924896, -0.0029891012236475945, -0.003494148375466466, -0.018917715176939964, -0.042820896953344345, -0.0040725478902459145, -0.011243180371820927, -0.06246780976653099, 0.004286402370780706, -0.01592973992228508, 0.01285050343722105, 0.05494452267885208, 0.011732553131878376, 0.03725951537489891, -0.027409203350543976, 0.02032497338950634, 0.017687441781163216, -0.04624882712960243, -0.06618857383728027, 0.016461055725812912, -0.011938655748963356, 0.005791377276182175, -0.052164476364851, 0.024841222912073135, -0.029070191085338593, -2.2693715436616912e-05, -0.006327325012534857, -0.0010303172748535872, 0.006768279708921909, -0.01048386748880148, -0.029329713433980942, 0.02296089567244053, 0.03651953488588333, -0.0017622907180339098, -0.00476790452376008, 0.006421087309718132, 0.009053383022546768, 0.025172991678118706, -0.014664418064057827, -0.017723670229315758, 0.006906874477863312, 0.02288742922246456, 0.02921053022146225, 0.02129201404750347, 0.00949439499527216, -0.028704743832349777, -0.005475096870213747, 0.032954081892967224, -0.04442565143108368, 0.012424049898982048, -0.020915988832712173, -0.025297868996858597, -0.052693720906972885, -0.013638749718666077, -0.04339095577597618, 0.045036837458610535, -0.012358134612441063, -0.0048490106128156185, -0.014178600162267685, -0.026888756081461906, -0.01178253348916769, -0.037712469696998596, -0.03416488319635391, -0.00962391123175621, -0.00399392144754529, -0.05014171451330185, 0.043291036039590836, -0.02108207531273365, 0.03752314671874046, 0.023579955101013184, 0.03780730441212654, -0.019592007622122765, 0.03583504259586334, 0.04496901109814644, 0.03895409777760506, 0.030240068212151527, -0.0038877115584909916, 0.00912790559232235, 0.004061974585056305, 0.02494097873568535, -0.013066977262496948, -0.016660524532198906, -0.014340140856802464, -0.035194557160139084, -0.011590540409088135, -0.002603277564048767, -0.014684655703604221, 0.0006532325060106814, -0.024055328220129013, 0.06280505657196045, 0.0334627665579319, 0.018502388149499893, -0.014573336578905582, -0.012904977425932884, -0.0085885776206851, -0.05772847309708595, -0.008558153174817562, -0.05680398643016815, -0.004953149706125259, -0.049066927284002304, -0.04297158122062683, -0.05125315487384796, -0.0235991682857275, -0.016384465619921684, -0.001963901799172163, -0.033475153148174286, -0.046003054827451706, -0.05027331784367561, -0.03096693381667137, -0.011902496218681335, -0.008458266034722328, -0.023269733414053917, -0.019091544672846794, -0.05920056253671646, -0.03214961662888527, -0.029482178390026093, -0.018212294206023216, -0.043133918195962906, 0.0063115316443145275, -0.055910490453243256, -0.003961033653467894, -0.035185519605875015, -0.002070806920528412, 0.014006371609866619, -0.02970849722623825, -0.06830623000860214, -0.031063809990882874, 0.024855732917785645, 0.016900768503546715, 0.007114332634955645, 0.019464844837784767, 0.04021580517292023, 0.019018393009901047, 0.016540583223104477, -0.005869035609066486, 0.00807963963598013, -0.04026496037840843, -0.04997227340936661, -0.018567923456430435, -0.07457580417394638, -0.07335574924945831, 0.019743235781788826, 0.020383242517709732, 0.07459422945976257, -0.03160550445318222, 0.009095110930502415, 0.002627132460474968, 0.018493415787816048, -0.0036490345373749733, 0.014369411394000053, -0.01677178218960762, 0.008852330967783928, -0.03344227001070976, 0.04390296712517738, -0.0037729907780885696, 0.024289440363645554, 0.03991668298840523, 0.09482833743095398, 0.018569620326161385, 0.03947776183485985, 0.008543482050299644, 0.017453430220484734, 0.023396402597427368, 0.036967046558856964, -0.02410721220076084, 0.06420635432004929, 0.05878392979502678, -0.009549629874527454, -0.016310090199112892, 0.022742746397852898, 0.01871001161634922, 0.002466809004545212, -0.007960885763168335, 0.007281842175871134, 0.02515818178653717, 0.0065712169744074345, 0.020327765494585037, -0.027942821383476257, -0.01873529516160488, -0.0289312694221735, -0.03540893271565437, 0.019572457298636436, 0.001426819828338921, 0.019984569400548935, 0.05762581527233124, -0.031517479568719864, -0.02739187888801098, -0.006557058077305555, -0.05945355072617531, 0.03713545948266983, -0.029959941282868385, -0.06954268366098404, -0.03704331815242767, -0.07019909471273422, 0.001324241515249014, -0.07085200399160385, -0.021168142557144165, -0.027318961918354034, 0.04461841285228729, -0.031202953308820724, -0.007459217216819525, -0.03880694508552551, -0.020257389172911644, -0.049109529703855515, 0.024760521948337555, 0.02292574755847454, -0.01108044758439064, 0.02307678386569023, -0.017923247069120407, -0.05138608440756798, -0.013171517290174961, -0.03265073895454407, -0.05940812826156616, -0.035443831235170364, -0.0510818250477314, -0.031104974448680878, -0.012628547847270966, 0.03608587011694908, 0.038471437990665436, 0.046332865953445435, -0.009096207097172737, -0.049483880400657654, 0.00687793456017971, -0.01205609180033207, -0.021264512091875076, -0.02352825552225113, -0.047748688608407974, -0.005623992998152971, -0.013269087299704552, -0.0014868623111397028, -0.015742013230919838, 0.007159979082643986, 0.058422986418008804, 0.04710840806365013, 0.04993371292948723, 0.02208482101559639, -0.02267427183687687, -0.03372910991311073, 0.004452677443623543, 0.016319235786795616, 0.003998179454356432, -0.04913971573114395, -0.010347013361752033, -0.05103932321071625, 0.021502334624528885, -0.03454972431063652, 0.05585331842303276, 0.029271762818098068, -0.0012164945947006345, 0.014541116543114185, 0.00835514534264803, 0.002524300944060087, -0.0278610959649086, -0.03183187544345856, 0.036974694579839706, 0.057364046573638916, -0.022321386262774467, -0.010166773572564125, 0.029596032574772835, 0.004700341261923313, 0.03021593950688839, 0.004323436878621578, -0.028806600719690323, -0.04887082427740097, -0.07215523719787598, -0.04371596872806549, 0.02152666263282299, -0.04262075200676918, 0.014779622666537762, -0.03280840814113617, -0.031399596482515335, -0.02236032858490944, 0.012165004387497902, -0.035107266157865524, -0.005063427612185478, 0.0021369103342294693, 0.000979043310508132, -0.032861243933439255, -0.042338572442531586, -0.0310401301831007, 0.0061966413632035255, -0.02279702201485634, 0.02825387939810753, -0.03223711624741554, 0.028581582009792328, -0.02629767172038555, -0.00265124230645597, -0.012055289931595325, 0.04096560180187225, -0.03044724464416504, 0.05446118488907814, 0.03285473585128784, 0.053867947310209274, 0.05568411946296692, -0.007750720717012882, -0.024195121601223946, -0.007346006575971842, 0.03598601371049881, 0.04101945459842682, 0.012752199545502663, -0.03112052008509636, 0.012038120999932289, -0.0013753182720392942, -0.010523834265768528, 0.011524079367518425, -0.03126906231045723, 0.02700706012547016, -0.015160881914198399, 0.022341599687933922, 0.007930027320981026, 0.021113228052854538, -0.008748876862227917, -0.038605108857154846, 0.012111029587686062, 0.025532929226756096, 0.0004939215141348541, -0.016362296417355537, -0.014648254960775375, -0.018163396045565605, -0.06223277375102043, -0.02421596087515354, -0.025490405037999153, -0.0252905935049057, -0.01236654818058014, -0.020034970715641975, 0.03647799789905548, -0.008336609229445457, 0.0325368195772171, 0.05597240850329399, 0.040589068084955215, 0.021351560950279236, 0.02372722700238228, 0.019306786358356476, -0.017135310918092728, -0.013650634326040745, 0.0031946776434779167, 0.003908110316842794, 0.013845337554812431, 0.043101027607917786, 0.017373869195580482, -0.011292529292404652, 0.03981707990169525, 0.029602238908410072, -0.009890715591609478, 0.02996215410530567, -0.03069455362856388, 0.02528446353971958, -0.012512190267443657, 0.0037237750366330147, 0.013562672771513462, -0.0016172400210052729, 0.037033259868621826, -0.030937129631638527, 0.03997519239783287, -0.035024747252464294, 0.03207134082913399, -0.006155883427709341, -0.02369491383433342, -0.031145373359322548, 0.04702401161193848, 0.0068464758805930614, 0.0034823438618332148, 0.03216727077960968, 0.034128669649362564, -0.016306402161717415, 0.03793318569660187, 0.014693815261125565, 0.02963792346417904, -0.014332295395433903, -0.012082350440323353, 0.031945645809173584, 0.0170880276709795, 0.0213784147053957, 0.03352023661136627, -0.02425045147538185, -0.014578239992260933, -0.013720707967877388, -0.03523806855082512, -0.02140044793486595, -0.038452256470918655, 0.042421795427799225, -0.042559608817100525, 0.04967079684138298, 0.017134489491581917, 0.003919514361768961, 0.0460796058177948, 0.07031182199716568, 0.015451147221028805, 0.013937006704509258, -0.038528721779584885, 0.01058761402964592, -0.04764080420136452, -0.0534161776304245, -0.01595454104244709, -0.003166432725265622, -0.03999171406030655, -0.04355033114552498, 0.01624452881515026, -0.047635518014431, -0.03132970631122589, 0.0037808509077876806, 0.001211259514093399, -0.03439949080348015, -9.309778397437185e-05, 0.0024878785479813814, -0.035167619585990906, -0.03376782685518265, -0.05319204553961754, -0.01419078093022108, -0.05942431464791298, -0.016644680872559547, 0.015457188710570335, 0.02116837166249752, 0.0008982585859484971, 0.0032066483981907368, 0.03453695774078369, -0.033141277730464935, -0.024930674582719803, -0.02874051406979561, -0.005974897183477879, -0.006677939090877771, 0.04666596278548241, 0.02006407082080841, 0.032197531312704086, -0.03155481442809105, -0.057686373591423035, -0.023282859474420547, 0.016317075118422508, -0.04339085519313812, -0.020494727417826653, 0.05551643669605255, 0.0183431264013052, 0.04278945177793503, -0.036374710500240326, -0.04474818333983421, -0.0379963144659996, -0.044267769902944565, 0.03054102696478367, -0.0057811676524579525, -0.010148078203201294, 0.028690440580248833, 0.01866035722196102, -0.006522983778268099, -0.005541556980460882, 0.006412068847566843, -0.01604943722486496, -0.015043793246150017, 0.012781903147697449, -0.017683565616607666, -0.009079505689442158, -0.021804265677928925, -0.01935509219765663, -0.010250168852508068, 0.03288928419351578, 0.02267363853752613, 0.01613258197903633, -0.05778971314430237, -0.03793860599398613, 0.026489755138754845, 0.004482918418943882, 0.03163359314203262, 0.07690119743347168, 0.01782931573688984, 0.04424138739705086, 0.05841458961367607, -0.008291220292448997, -0.039884790778160095, -0.04052041471004486, -0.059266336262226105, -0.007215540390461683, -0.02049746736884117, 0.06890229135751724, -0.03053169511258602, 0.0185080636292696, -0.03532829135656357, -0.025840293616056442, -0.026808394119143486, -0.04116630554199219, -0.01994735188782215, 0.012267890386283398, -0.0037524669896811247, -0.04829695075750351, -0.029515340924263, -0.02908371016383171, -0.005510470364242792, -0.06970914453268051, 0.0012466560583561659, -0.008451184257864952, 0.025730760768055916, -0.015047737397253513, -0.035072799772024155, 0.01528407633304596, 0.029115036129951477, -0.0018844971200451255, 0.03473345562815666, -0.03450932726264, 0.012681877240538597, 0.020879646763205528, 0.014298045076429844, -0.017667194828391075, 0.05705111846327782, 0.04345297813415527, -0.052088335156440735, -0.005584880709648132, -0.031103238463401794, -0.06909555941820145, 0.00876510888338089};

float NODE_BIASES[N_LEAVES - 1] = {0.023270372301340103, -0.01918818987905979, -0.033066779375076294, 0.04034771770238876, 0.02327706106007099, 0.02397710084915161, 0.003112376667559147};

